svm_type c_svc
kernel_type rbf
gamma 0.1
nr_class 2
total_sv 61
rho -0.8163705353889562
label 4 2
nr_sv 31 30
SV
0.5378483578708192 1:-0.845248782071689 2:1.0 3:-0.33333333333333337 4:-0.5555555555555556 5:-1.0 6:-0.5555555555555556 7:-0.5555555555555556 8:0.11111111111111116 9:-0.11111111111111116 10:-0.7777777777777778 
1.0 1:-0.8447913098499087 2:-0.11111111111111116 3:0.11111111111111116 4:-0.11111111111111116 5:0.11111111111111116 6:1.0 7:-1.0 8:-0.5555555555555556 9:-1.0 10:-1.0 
0.7586473073289585 1:-0.8439255029711424 2:0.7777777777777777 3:-0.11111111111111116 4:0.5555555555555556 5:-1.0 6:-0.7777777777777778 7:-0.5555555555555556 8:-0.7777777777777778 9:-1.0 10:-0.11111111111111116 
1.0 1:-0.8439137039814197 2:-0.11111111111111116 3:-0.5555555555555556 4:-0.5555555555555556 5:-0.33333333333333337 6:-0.7777777777777778 7:-0.33333333333333337 8:-0.5555555555555556 9:-0.33333333333333337 10:-1.0 
1.0 1:-0.8432283170974008 2:0.5555555555555556 3:-0.7777777777777778 4:-0.33333333333333337 5:-1.0 6:-0.11111111111111116 7:-1.0 8:-0.11111111111111116 9:-0.33333333333333337 10:-0.33333333333333337 
0.2594592361926072 1:-0.8431618544337729 2:-0.11111111111111116 3:-0.7777777777777778 4:-0.5555555555555556 5:-1.0 6:0.11111111111111116 7:1.0 8:-0.11111111111111116 9:-1.0 10:-1.0 
1.0 1:-0.8430986775647512 2:0.7777777777777777 3:-0.11111111111111116 4:-0.11111111111111116 5:-0.7777777777777778 6:-0.7777777777777778 7:-0.7777777777777778 8:-0.11111111111111116 9:-1.0 10:-1.0 
1.0 1:-0.8428931660475558 2:-0.11111111111111116 3:-0.5555555555555556 4:-0.11111111111111116 5:-0.11111111111111116 6:-0.5555555555555556 7:-0.5555555555555556 8:-0.33333333333333337 9:1.0 10:-1.0 
1.0 1:-0.8427662148923114 2:0.11111111111111116 3:-0.5555555555555556 4:-0.33333333333333337 5:-1.0 6:-0.11111111111111116 7:-0.7777777777777778 8:-0.5555555555555556 9:0.7777777777777777 10:-1.0 
1.0 1:-0.8412301059138553 2:1.0 3:0.11111111111111116 4:-0.33333333333333337 5:-1.0 6:-0.5555555555555556 7:-0.33333333333333337 8:-0.5555555555555556 9:-0.7777777777777778 10:-0.5555555555555556 
1.0 1:-0.8379650715552719 2:-0.5555555555555556 3:-0.5555555555555556 4:0.11111111111111116 5:-0.33333333333333337 6:-0.11111111111111116 7:0.5555555555555556 8:-0.33333333333333337 9:-0.33333333333333337 10:-1.0 
1.0 1:-0.8351032938074645 2:-0.7777777777777778 3:-0.5555555555555556 4:-0.33333333333333337 5:-0.33333333333333337 6:-0.7777777777777778 7:-0.11111111111111116 8:-0.7777777777777778 9:-0.11111111111111116 10:-1.0 
1.0 1:-0.8349658878512001 2:0.5555555555555556 3:-0.7777777777777778 4:-0.5555555555555556 5:-1.0 6:0.11111111111111116 7:-0.5555555555555556 8:0.33333333333333326 9:-1.0 10:-1.0 
1.0 1:-0.8348628333840018 2:0.33333333333333326 3:-0.5555555555555556 4:-0.33333333333333337 5:-0.33333333333333337 6:-0.5555555555555556 7:-0.5555555555555556 8:-0.5555555555555556 9:-0.7777777777777778 10:0.33333333333333326 
1.0 1:-0.832389526171242 2:-0.5555555555555556 3:-0.33333333333333337 4:-0.11111111111111116 5:-0.7777777777777778 6:0.11111111111111116 7:0.5555555555555556 8:-0.33333333333333337 9:-1.0 10:-1.0 
0.0933969745771152 1:-0.8313864626905116 2:-0.11111111111111116 3:-0.11111111111111116 4:-0.11111111111111116 5:0.11111111111111116 6:-0.5555555555555556 7:1.0 8:-0.5555555555555556 9:-1.0 10:-1.0 
1.0 1:-0.8298201841433974 2:-0.11111111111111116 3:-0.5555555555555556 4:-0.5555555555555556 5:-0.5555555555555556 6:0.11111111111111116 7:1.0 8:-0.5555555555555556 9:-1.0 10:-1.0 
1.0 1:-0.8263551643767292 2:-0.33333333333333337 3:-1.0 4:-1.0 5:-0.5555555555555556 6:-1.0 7:-0.11111111111111116 8:-0.7777777777777778 9:-1.0 10:-1.0 
0.9364479726493509 1:-0.9615711385360456 2:-0.5555555555555556 3:-0.5555555555555556 4:-0.11111111111111116 5:-0.7777777777777778 6:-0.5555555555555556 7:1.0 8:0.33333333333333326 9:-1.0 10:-1.0 
1.0 1:-0.9454068213245381 2:0.33333333333333326 3:-0.7777777777777778 4:-0.33333333333333337 5:-1.0 6:-0.5555555555555556 7:-0.33333333333333337 8:-0.5555555555555556 9:-0.5555555555555556 10:-1.0 
0.09024558896888996 1:-0.9365545919465025 2:-1.0 3:-0.33333333333333337 4:-0.5555555555555556 5:1.0 6:-0.33333333333333337 7:1.0 8:-0.11111111111111116 9:0.11111111111111116 10:-1.0 
1.0 1:-0.9282826040250834 2:0.11111111111111116 3:-1.0 4:-0.5555555555555556 5:-1.0 6:-0.33333333333333337 7:-0.11111111111111116 8:-0.11111111111111116 9:1.0 10:-1.0 
0.17012568624858979 1:-0.9061677127815244 2:0.5555555555555556 3:0.11111111111111116 4:-0.33333333333333337 5:1.0 6:1.0 7:-1.0 8:-0.5555555555555556 9:-0.11111111111111116 10:-1.0 
1.0 1:-0.8851687968697131 2:-0.5555555555555556 3:-0.33333333333333337 4:-0.33333333333333337 5:1.0 6:-0.11111111111111116 7:-1.0 8:-0.5555555555555556 9:-0.5555555555555556 10:-1.0 
1.0 1:-0.8851178670533151 2:-0.33333333333333337 3:-0.7777777777777778 4:-0.5555555555555556 5:-0.11111111111111116 6:-0.5555555555555556 7:0.5555555555555556 8:0.33333333333333326 9:0.11111111111111116 10:-1.0 
1.0 1:-0.8811454907285704 2:-0.11111111111111116 3:-0.5555555555555556 4:-0.5555555555555556 5:-1.0 6:-0.5555555555555556 7:-0.5555555555555556 8:-0.5555555555555556 9:-0.5555555555555556 10:-0.5555555555555556 
1.0 1:-0.8232859335058226 2:1.0 3:-0.7777777777777778 4:-0.7777777777777778 5:-1.0 6:-0.7777777777777778 7:0.11111111111111116 8:-1.0 9:-1.0 10:-0.7777777777777778 
1.0 1:-0.8487075289577453 2:-0.5555555555555556 3:0.11111111111111116 4:-0.33333333333333337 5:1.0 6:-0.5555555555555556 7:-0.5555555555555556 8:-0.5555555555555556 9:-0.33333333333333337 10:-1.0 
1.0 1:-0.847544507021407 2:0.11111111111111116 3:-0.5555555555555556 4:-0.7777777777777778 5:-1.0 6:-0.5555555555555556 7:-0.33333333333333337 8:-0.33333333333333337 9:-1.0 10:-1.0 
0.41108486045843495 1:-0.8161618827364128 2:-0.33333333333333337 3:1.0 4:0.5555555555555556 5:-0.11111111111111116 6:-0.33333333333333337 7:-1.0 8:1.0 9:-1.0 10:-1.0 
1.0 1:-0.8077893793709003 2:-0.11111111111111116 3:0.33333333333333326 4:-0.33333333333333337 5:-1.0 6:0.11111111111111116 7:-1.0 8:0.33333333333333326 9:1.0 10:-0.5555555555555556 
-0.13298956724669772 1:-0.8414938656081629 2:-1.0 3:-0.5555555555555556 4:-0.5555555555555556 5:-0.7777777777777778 6:-0.7777777777777778 7:-1.0 8:0.33333333333333326 9:-0.7777777777777778 10:-1.0 
-1.0 1:-0.8342209086013664 2:0.5555555555555556 3:-0.5555555555555556 4:-0.5555555555555556 5:-1.0 6:-0.7777777777777778 7:-0.7777777777777778 8:-0.5555555555555556 9:-0.7777777777777778 10:-1.0 
-1.0 1:-0.8321135194243109 2:-0.5555555555555556 3:-1.0 4:-1.0 5:-0.5555555555555556 6:0.5555555555555556 7:-1.0 8:-0.11111111111111116 9:0.5555555555555556 10:-1.0 
-0.560671588662071 1:-0.8306225154445415 2:-1.0 3:-1.0 4:-1.0 5:-0.7777777777777778 6:-1.0 7:-0.5555555555555556 8:-1.0 9:-1.0 10:0.33333333333333326 
-1.0 1:-0.8282425546694614 2:0.5555555555555556 3:-0.33333333333333337 4:-0.33333333333333337 5:-0.11111111111111116 6:-0.33333333333333337 7:0.33333333333333326 8:0.33333333333333326 9:0.5555555555555556 10:-0.7777777777777778 
-1.0 1:-0.8255047409908927 2:0.5555555555555556 3:-0.33333333333333337 4:0.11111111111111116 5:-0.5555555555555556 6:-0.5555555555555556 7:-1.0 8:-0.33333333333333337 9:-0.5555555555555556 10:-1.0 
-0.05891201806506834 1:-0.824856991390546 2:-0.5555555555555556 3:-0.5555555555555556 4:-0.7777777777777778 5:-1.0 6:-0.5555555555555556 7:-1.0 8:-0.5555555555555556 9:0.11111111111111116 10:-1.0 
-1.0 1:-0.8197138267058482 2:-0.11111111111111116 3:-1.0 4:-0.5555555555555556 5:-0.5555555555555556 6:-0.7777777777777778 7:-0.7777777777777778 8:-0.7777777777777778 9:-0.5555555555555556 10:-1.0 
-1.0 1:-0.9903391664402083 2:-1.0 3:-1.0 4:-1.0 5:-1.0 6:-0.7777777777777778 7:-0.11111111111111116 8:-0.11111111111111116 9:-1.0 10:-1.0 
-1.0 1:-0.8575685702394978 2:0.11111111111111116 3:-0.5555555555555556 4:-0.5555555555555556 5:-0.11111111111111116 6:-0.5555555555555556 7:1.0 8:-0.5555555555555556 9:-0.11111111111111116 10:-0.5555555555555556 
-1.0 1:-0.97317671443988 2:-0.11111111111111116 3:0.33333333333333326 4:0.33333333333333326 5:-1.0 6:-0.11111111111111116 7:0.5555555555555556 8:-0.5555555555555556 9:-0.33333333333333337 10:-1.0 
-1.0 1:-0.9174272347715928 2:-0.11111111111111116 3:-0.5555555555555556 4:-0.33333333333333337 5:-0.5555555555555556 6:-0.33333333333333337 7:-0.11111111111111116 8:-0.33333333333333337 9:0.33333333333333326 10:-1.0 
-1.0 1:-0.9160888708867172 2:0.5555555555555556 3:-0.7777777777777778 4:-1.0 5:-1.0 6:-0.11111111111111116 7:-1.0 8:-1.0 9:-1.0 10:-1.0 
-1.0 1:-0.9088547459979955 2:-0.5555555555555556 3:-1.0 4:-1.0 5:-1.0 6:-0.7777777777777778 7:-0.11111111111111116 8:-0.11111111111111116 9:-1.0 10:-1.0 
-1.0 1:-0.9017088895007437 2:-0.33333333333333337 3:-0.33333333333333337 4:-0.33333333333333337 5:-0.33333333333333337 6:0.11111111111111116 7:-0.11111111111111116 8:0.33333333333333326 9:-0.5555555555555556 10:-1.0 
-1.0 1:-0.8829873279597149 2:-0.5555555555555556 3:-0.33333333333333337 4:-0.11111111111111116 5:-0.5555555555555556 6:0.33333333333333326 7:-0.5555555555555556 8:-0.33333333333333337 9:0.11111111111111116 10:-1.0 
-1.0 1:-0.8767605978264319 2:-0.33333333333333337 3:-0.33333333333333337 4:-0.33333333333333337 5:-0.7777777777777778 6:-0.7777777777777778 7:-0.5555555555555556 8:-0.7777777777777778 9:-1.0 10:-1.0 
-1.0 1:-0.9070117139324487 2:-0.11111111111111116 3:-0.5555555555555556 4:-0.33333333333333337 5:-1.0 6:-0.33333333333333337 7:-1.0 8:-0.5555555555555556 9:-1.0 10:-1.0 
-1.0 1:-0.8243807005269295 2:-0.5555555555555556 3:-0.5555555555555556 4:-0.7777777777777778 5:0.11111111111111116 6:-0.5555555555555556 7:-0.5555555555555556 8:-0.5555555555555556 9:-0.11111111111111116 10:-1.0 
-1.0 1:-0.8242156640251118 2:-0.11111111111111116 3:-0.7777777777777778 4:-0.7777777777777778 5:-0.7777777777777778 6:-0.7777777777777778 7:-0.7777777777777778 8:-0.5555555555555556 9:-0.7777777777777778 10:-0.7777777777777778 
-1.0 1:-0.8214945780281753 2:-0.11111111111111116 3:-0.5555555555555556 4:0.11111111111111116 5:-1.0 6:-0.7777777777777778 7:-1.0 8:-1.0 9:-1.0 10:-1.0 
-1.0 1:-0.816284651971249 2:0.11111111111111116 3:0.7777777777777777 4:0.33333333333333326 5:-0.11111111111111116 6:-0.11111111111111116 7:0.5555555555555556 8:-0.33333333333333337 9:-0.7777777777777778 10:-1.0 
-1.0 1:-0.9082165550728674 2:-0.11111111111111116 3:-0.7777777777777778 4:-0.7777777777777778 5:-0.33333333333333337 6:-0.7777777777777778 7:-0.33333333333333337 8:-1.0 9:-1.0 10:-1.0 
-1.0 1:-0.8368166863403619 2:-0.11111111111111116 3:-1.0 4:-0.7777777777777778 5:1.0 6:-0.33333333333333337 7:-0.11111111111111116 8:-0.7777777777777778 9:-1.0 10:-1.0 
-1.0 1:-0.8143579814975412 2:-0.33333333333333337 3:-0.33333333333333337 4:-0.7777777777777778 5:-1.0 6:-0.7777777777777778 7:-0.11111111111111116 8:-0.7777777777777778 9:-1.0 10:-0.7777777777777778 
-1.0 1:-0.8132164665804444 2:-0.33333333333333337 3:-0.5555555555555556 4:-1.0 5:-1.0 6:-0.7777777777777778 7:-1.0 8:-0.33333333333333337 9:0.5555555555555556 10:-1.0 
-1.0 1:-0.8457204429519967 2:0.11111111111111116 3:-0.5555555555555556 4:-0.5555555555555556 5:-0.5555555555555556 6:-0.5555555555555556 7:-0.7777777777777778 8:0.11111111111111116 9:-1.0 10:-1.0 
-0.4583481949951634 1:-0.8391122619357796 2:0.33333333333333326 3:-1.0 4:-0.7777777777777778 5:-0.5555555555555556 6:-0.7777777777777778 7:-1.0 8:-0.7777777777777778 9:-1.0 10:-1.0 
-1.0 1:-0.8102450627762261 2:-0.11111111111111116 3:-0.33333333333333337 4:-0.11111111111111116 5:-1.0 6:0.5555555555555556 7:-1.0 8:-0.5555555555555556 9:0.11111111111111116 10:-1.0 
-0.046334615325765174 1:1.0 2:-1.0 3:-1.0 4:-0.5555555555555556 5:-1.0 6:-0.7777777777777778 7:-1.0 8:-0.7777777777777778 9:-1.0 10:-1.0 
